{
    "layers": [
        {
            "activation": "sigmoid",
            "nodes": [
                {
                    "bias": -0.951418427571725,
                    "weights": [
                        -5.011721653217292,
                        0.6251762028890596,
                        0.9222129284338559,
                        -1.1723694105140219,
                        -0.24771122292123027,
                        -3.7337758547703483
                    ]
                },
                {
                    "bias": 0.4398143494774217,
                    "weights": [
                        -3.834345730207627,
                        0.7593007734440166,
                        -0.916333457305261,
                        -0.2094275449575376,
                        -1.1289246620063527,
                        -9.329510941614318
                    ]
                },
                {
                    "bias": 0.2643232744354758,
                    "weights": [
                        0.613857653221715,
                        0.6152922650348945,
                        0.8457238253136492,
                        -0.39559533176788825,
                        -0.5229816770589972,
                        9.176726769502809
                    ]
                },
                {
                    "bias": -0.6715741615050156,
                    "weights": [
                        1.1717892193409412,
                        -0.6796130498222909,
                        -0.5592377027070498,
                        0.5862098428970897,
                        -0.2067645107684398,
                        -5.265330857906005
                    ]
                },
                {
                    "bias": -0.3697276480594726,
                    "weights": [
                        2.776011653618734,
                        -0.5066480957815802,
                        -0.7978049405160392,
                        -0.3603213038212577,
                        0.07545946273647998,
                        -8.505002890333667
                    ]
                },
                {
                    "bias": -0.05862263951290008,
                    "weights": [
                        2.229161531161322,
                        -0.10852839358953371,
                        -0.27584229151968354,
                        0.961023751371142,
                        0.8036592055157324,
                        -14.47344012524909
                    ]
                },
                {
                    "bias": 0.9829087960657964,
                    "weights": [
                        -6.31355295368971,
                        -1.0067958913761192,
                        -0.6217433927749031,
                        0.13370105945898847,
                        -0.7786153279009069,
                        -3.4189859190496725
                    ]
                },
                {
                    "bias": -0.6016908899780643,
                    "weights": [
                        -5.650690566480435,
                        -0.6421255944081427,
                        0.2248043833411659,
                        -0.40638625096892833,
                        -1.3221205498273458,
                        -4.925794758631272
                    ]
                },
                {
                    "bias": 0.009508930395071703,
                    "weights": [
                        -11.795163050203033,
                        0.3718683106091863,
                        -0.3043896048530944,
                        -1.1308164994779097,
                        -1.583174105998485,
                        -8.390647193784968
                    ]
                },
                {
                    "bias": 0.8738193301727534,
                    "weights": [
                        -2.7773600802281053,
                        0.03928000932809399,
                        0.6643461173209679,
                        0.8886683887726171,
                        0.9965194155791338,
                        -9.209799896450313
                    ]
                },
                {
                    "bias": 0.16248434725598157,
                    "weights": [
                        -7.0536260473695584,
                        0.10045292335283572,
                        -0.18507367886686657,
                        0.38089984140977473,
                        -1.1756558604462826,
                        -4.708277586236439
                    ]
                },
                {
                    "bias": -0.9482959054857859,
                    "weights": [
                        2.684780608061853,
                        0.5047056106033149,
                        0.1498280372883766,
                        0.31696752421697144,
                        1.0398798906588658,
                        7.992943636225382
                    ]
                },
                {
                    "bias": 0.8739661587000783,
                    "weights": [
                        -1.7070428700998526,
                        -0.9275698370466646,
                        -0.5331797144269976,
                        0.35094050343411676,
                        0.9683072126259434,
                        -12.345792167514116
                    ]
                },
                {
                    "bias": 0.3423243975453578,
                    "weights": [
                        -2.951972820629996,
                        -0.9081966740402441,
                        -0.1023987523013159,
                        0.18232072770253704,
                        -0.43032638054973843,
                        -6.268693265192824
                    ]
                },
                {
                    "bias": 0.27388829696964123,
                    "weights": [
                        -1.8309570451642703,
                        -0.11035759473969757,
                        0.21337905351484057,
                        0.455581623407294,
                        -1.6915025119856373,
                        2.4014215766789486
                    ]
                },
                {
                    "bias": 0.1486462201189097,
                    "weights": [
                        -1.1864945259670792,
                        0.2920158423864185,
                        -0.5818724548209443,
                        0.9209272349309361,
                        -0.8974448733657707,
                        8.391919504531714
                    ]
                },
                {
                    "bias": -0.3296560268742557,
                    "weights": [
                        2.4158393523695993,
                        0.9948972266938172,
                        0.1925103098629485,
                        0.4062896490587888,
                        -0.42088146500284046,
                        3.8716769946941296
                    ]
                },
                {
                    "bias": -0.7446877825547646,
                    "weights": [
                        -0.5488472465333226,
                        -0.1910570491894876,
                        -0.45526495853947496,
                        -0.1822215931662409,
                        -0.46937426809917476,
                        1.4558888675463535
                    ]
                },
                {
                    "bias": -0.3655537574294264,
                    "weights": [
                        -4.901636681107483,
                        -0.9898551852108826,
                        0.5987836803923773,
                        -0.13536181885997517,
                        -0.6112056207472105,
                        -8.891008317852075
                    ]
                },
                {
                    "bias": -0.9099896442173178,
                    "weights": [
                        2.7852232385588986,
                        -0.07836913833980473,
                        0.9367233015042467,
                        -0.7306366884641582,
                        0.1861257658127204,
                        -5.110037868911849
                    ]
                },
                {
                    "bias": -0.008783890504722934,
                    "weights": [
                        9.265117577685464,
                        0.9637405325788995,
                        0.2486581414934651,
                        1.190948697348452,
                        2.241554865676821,
                        15.666025950668454
                    ]
                },
                {
                    "bias": -0.6325158735760643,
                    "weights": [
                        -1.858652480227472,
                        -0.9520910916106912,
                        0.6416218858875052,
                        0.32999099926719266,
                        -0.4548271937863135,
                        -8.348434047082186
                    ]
                },
                {
                    "bias": -0.07827086602679056,
                    "weights": [
                        0.4236369665250073,
                        0.6538795779411221,
                        -0.36923171007156413,
                        0.8356880834791511,
                        0.7084107128527006,
                        -1.6230659950389723
                    ]
                },
                {
                    "bias": 0.6809996507028211,
                    "weights": [
                        2.347631092265094,
                        0.06863644493297934,
                        0.5667489721671474,
                        0.7029609684689043,
                        1.2989205440168876,
                        7.529517434362165
                    ]
                },
                {
                    "bias": -0.0865936103474641,
                    "weights": [
                        4.072908455124734,
                        0.8606380957229751,
                        0.7986734204978486,
                        0.4233439393698515,
                        2.1461668366306297,
                        -4.156540857318528
                    ]
                },
                {
                    "bias": 0.1688784306195279,
                    "weights": [
                        -2.033960914191694,
                        0.4106471089610798,
                        0.8797315942248733,
                        0.5458590787988924,
                        -0.16467820682939496,
                        0.3457396093442216
                    ]
                },
                {
                    "bias": 0.9733700559943064,
                    "weights": [
                        4.108302063640505,
                        0.7442888612215427,
                        0.5566170422282068,
                        -0.6377405673734627,
                        1.2129269980964643,
                        4.255436286502034
                    ]
                },
                {
                    "bias": 0.20009240825768115,
                    "weights": [
                        2.551271468394943,
                        -0.5953708167557723,
                        -0.11348328108265639,
                        0.7896380790169084,
                        0.6122632649983318,
                        8.523618048882216
                    ]
                },
                {
                    "bias": -0.19199585885726786,
                    "weights": [
                        2.3907874122173594,
                        0.9461812500320462,
                        -0.12420847420918618,
                        0.6990088391706832,
                        1.2638885349047633,
                        -1.2808102624443063
                    ]
                },
                {
                    "bias": -0.07915989690003042,
                    "weights": [
                        -5.072263823370221,
                        0.6172784192436996,
                        0.7084181352130419,
                        -0.039834624095340984,
                        -1.03326917032825,
                        -4.630186795261917
                    ]
                },
                {
                    "bias": 0.013419263748470628,
                    "weights": [
                        7.190499751359413,
                        0.18364526011808543,
                        -0.875989108395383,
                        0.28668590474013794,
                        1.546789721246219,
                        6.252445632838255
                    ]
                },
                {
                    "bias": -0.04348854716857069,
                    "weights": [
                        2.730306998578207,
                        0.8413348398710755,
                        0.00685929610945987,
                        0.4892605316532086,
                        0.5054949297120077,
                        -6.134659767126539
                    ]
                },
                {
                    "bias": -0.2694606581906311,
                    "weights": [
                        2.2151272336204033,
                        -0.6632686827074072,
                        -0.8307339797366899,
                        0.20506043584473843,
                        -0.12279950579625025,
                        -3.4248301141897555
                    ]
                },
                {
                    "bias": -0.17988783168422462,
                    "weights": [
                        -3.835779943861917,
                        0.6341583338800175,
                        0.5230772581294449,
                        0.41103881055375663,
                        -0.6166887141457695,
                        2.212013339552362
                    ]
                },
                {
                    "bias": 0.7608525373597265,
                    "weights": [
                        0.3778314089889468,
                        -0.10209845110878939,
                        0.7566646461901851,
                        -0.049851391258586376,
                        -0.46286963080127835,
                        -1.9879944908872604
                    ]
                },
                {
                    "bias": -0.4969714467062502,
                    "weights": [
                        -0.8428497670628687,
                        0.47728748747277666,
                        -0.23043911644904674,
                        0.13980760924776894,
                        0.15428353374701048,
                        -0.7578682698841944
                    ]
                },
                {
                    "bias": -0.6716698365312161,
                    "weights": [
                        -1.1681678738451982,
                        0.5951016215737251,
                        0.4469180365713447,
                        0.10907288741305952,
                        0.12386235598566496,
                        6.4875311892602285
                    ]
                },
                {
                    "bias": 0.7899784495885241,
                    "weights": [
                        0.6551977348055037,
                        -0.3483674753888671,
                        0.06761661876638143,
                        -0.7150951133128367,
                        -0.2434269231658023,
                        -2.838473006674611
                    ]
                },
                {
                    "bias": -0.1784079806698036,
                    "weights": [
                        -4.721087663675219,
                        0.8372783339638378,
                        -0.42038592503059913,
                        0.6555899650312248,
                        -1.7381209003058296,
                        1.1771284705244347
                    ]
                },
                {
                    "bias": -0.09041372650276337,
                    "weights": [
                        -2.0742420676623707,
                        -0.8251446405962231,
                        -0.43931347582383845,
                        0.6232089402758537,
                        -0.21237751762060816,
                        7.170999053739256
                    ]
                },
                {
                    "bias": 0.6749128326765897,
                    "weights": [
                        0.114686840167341,
                        0.10649868341518132,
                        0.41317754301472903,
                        -0.5069813902480763,
                        -0.08353882728098383,
                        -2.1270978527727604
                    ]
                },
                {
                    "bias": 0.07187924646241375,
                    "weights": [
                        -4.038449561840207,
                        -0.5219189034323736,
                        0.9796862130350757,
                        -0.3103904912238162,
                        -0.7781377435203937,
                        2.23270724332835
                    ]
                },
                {
                    "bias": -0.053791995265914105,
                    "weights": [
                        -1.267123171492443,
                        0.6565700303902918,
                        -0.13402937459356176,
                        -0.07327993273746918,
                        0.4665783004276717,
                        -5.771220602408198
                    ]
                },
                {
                    "bias": -0.2029909823289275,
                    "weights": [
                        1.972984758994528,
                        0.8280673523038414,
                        0.7687661802730672,
                        0.22566921702568124,
                        -0.7969712169082086,
                        8.593036430961405
                    ]
                },
                {
                    "bias": 0.13422211894497196,
                    "weights": [
                        -0.8691088666765893,
                        0.7189719792832637,
                        0.7026000648106437,
                        -0.39794769849509026,
                        0.05087844242920321,
                        -8.64450186782008
                    ]
                },
                {
                    "bias": 0.012465748334761603,
                    "weights": [
                        0.49357165861928515,
                        0.998056238257115,
                        -0.15031700431620307,
                        -0.8321786702406413,
                        0.3806392650525395,
                        -15.602125052354706
                    ]
                },
                {
                    "bias": -0.9451298250870839,
                    "weights": [
                        -1.964196131398027,
                        0.8715860183642296,
                        -0.9041385688104318,
                        -0.0889575344082054,
                        0.23466323104630124,
                        -5.694950915432538
                    ]
                },
                {
                    "bias": -0.590336757009819,
                    "weights": [
                        0.488438336601448,
                        -0.5758275841405948,
                        0.0018676319760460747,
                        0.36482516662397424,
                        -1.0133204011791042,
                        6.797265422691667
                    ]
                },
                {
                    "bias": -0.35464530798484395,
                    "weights": [
                        -6.6066906312822775,
                        0.1132296170813778,
                        0.16328399877750002,
                        0.6784667352004184,
                        -1.5769515299776893,
                        -1.2032670351827726
                    ]
                },
                {
                    "bias": 0.3707990401724296,
                    "weights": [
                        -6.932010595694577,
                        0.9458865627069164,
                        0.7553914057314937,
                        -0.17632263260163297,
                        -0.8014124247349715,
                        -1.4201031208434916
                    ]
                },
                {
                    "bias": 0.08644909069354945,
                    "weights": [
                        -1.9129312106058265,
                        0.408625922575698,
                        -0.6233142973746619,
                        -1.0182759765261076,
                        -0.5054931932487171,
                        8.170629007275874
                    ]
                },
                {
                    "bias": 0.21774168599430435,
                    "weights": [
                        4.374698372438485,
                        0.479370104582676,
                        0.16191403951342112,
                        1.1048094437713953,
                        2.0250074353456338,
                        -1.851348005902357
                    ]
                },
                {
                    "bias": -0.5885908079838045,
                    "weights": [
                        0.1810641414760078,
                        -0.05125648255612518,
                        0.6348115819090628,
                        -0.5008583977150529,
                        -0.3795891210321368,
                        -3.6235707905110046
                    ]
                },
                {
                    "bias": 0.7803110663274082,
                    "weights": [
                        -1.37332701091579,
                        0.696506257177766,
                        0.06654232087753814,
                        -0.49227713447861643,
                        0.6694733826515298,
                        -6.89411413142799
                    ]
                },
                {
                    "bias": -0.9008624079868507,
                    "weights": [
                        0.9089341121450955,
                        0.44544602508038655,
                        0.1408671974957352,
                        -0.9248719145738643,
                        -0.6354725940840132,
                        10.53377262113245
                    ]
                },
                {
                    "bias": -0.08399652821406302,
                    "weights": [
                        0.5320070620135294,
                        -0.9430924733926617,
                        0.1677444364158425,
                        0.09715352731089079,
                        0.653227087942134,
                        2.7076527830358326
                    ]
                },
                {
                    "bias": 0.9749565532594784,
                    "weights": [
                        2.0846894832259824,
                        -0.5236180822156618,
                        -0.8469589758397504,
                        0.6077950128887493,
                        1.182519604360383,
                        -7.230475003751763
                    ]
                },
                {
                    "bias": -0.010532280964623202,
                    "weights": [
                        2.572530459969512,
                        -0.413272545345521,
                        -0.5778463766940831,
                        -0.4962874188383679,
                        0.2224144601730113,
                        -6.887464034677159
                    ]
                },
                {
                    "bias": 0.6141291280122105,
                    "weights": [
                        5.103958149618374,
                        -0.6690058387703387,
                        -0.19427142186187915,
                        0.7442780435413962,
                        1.80849520513833,
                        -1.2633268351888545
                    ]
                },
                {
                    "bias": 0.8806065481503662,
                    "weights": [
                        3.5459849119430222,
                        0.5092156158039898,
                        0.7109737881503259,
                        0.048341382531662064,
                        1.1046907355963345,
                        6.859571162271127
                    ]
                },
                {
                    "bias": -0.9813925695826551,
                    "weights": [
                        -4.239031618302626,
                        0.15581103038064054,
                        -0.2373288878641398,
                        -0.7621349306025863,
                        -0.5344615805073422,
                        0.42321960504092493
                    ]
                },
                {
                    "bias": -0.0977505564372794,
                    "weights": [
                        2.5715700548941243,
                        -0.3111822445015533,
                        -0.9790943092243898,
                        -0.3549741738359376,
                        1.1225718698679799,
                        -3.578816286086188
                    ]
                },
                {
                    "bias": -0.012072224670224679,
                    "weights": [
                        0.7293751660290837,
                        0.8555235550893006,
                        0.9001791920059711,
                        0.4097126499414005,
                        -0.9047604623575612,
                        -0.48575740242343934
                    ]
                },
                {
                    "bias": 0.451638654281207,
                    "weights": [
                        -1.2280642163167639,
                        -0.39995120000738366,
                        -0.42726963824124126,
                        -0.4995943771046185,
                        -2.0211712519061167,
                        10.36363594470129
                    ]
                },
                {
                    "bias": 0.21827157489464238,
                    "weights": [
                        5.348196393228813,
                        0.20943708319674464,
                        0.34257753831636156,
                        -0.03920617554583592,
                        0.6206737484146994,
                        -4.5979057151722165
                    ]
                },
                {
                    "bias": 0.5274191998974521,
                    "weights": [
                        -6.768363181144596,
                        -0.009762413204066315,
                        0.21407269963325815,
                        -0.3512207876285681,
                        -0.8401596748818753,
                        -5.404395648100067
                    ]
                },
                {
                    "bias": 0.842187377764374,
                    "weights": [
                        2.4276381975432324,
                        0.6533172838512774,
                        -0.5474759087701667,
                        -0.44870390739187876,
                        1.195614259702944,
                        -1.1859835492674315
                    ]
                },
                {
                    "bias": -0.8220922484353085,
                    "weights": [
                        -12.308724584249148,
                        -0.021361534131397984,
                        -0.21018590344864838,
                        -0.07446534725825005,
                        -1.8934952136128942,
                        -11.890459881211324
                    ]
                },
                {
                    "bias": -0.7731869997222265,
                    "weights": [
                        11.484791183072641,
                        0.7822087533072314,
                        0.6654993383789479,
                        0.9937430536696482,
                        1.9868991304346115,
                        8.73405779759646
                    ]
                },
                {
                    "bias": -0.68433571390308,
                    "weights": [
                        0.6850700846158835,
                        0.052705567690331315,
                        0.446315445673242,
                        0.2840575055168875,
                        -0.7313055288918686,
                        -3.9383334540821693
                    ]
                },
                {
                    "bias": 0.09084930170133668,
                    "weights": [
                        -5.007818373939977,
                        0.8976087231816704,
                        0.8306987666385027,
                        -0.5958867755526915,
                        -0.6325695993714626,
                        -3.1980397366765367
                    ]
                },
                {
                    "bias": -0.6816171053189904,
                    "weights": [
                        0.38619058355302843,
                        -0.36916081191172295,
                        -0.0644351049712441,
                        -0.23299634427097968,
                        0.7322538789775019,
                        3.3903499347814874
                    ]
                },
                {
                    "bias": -0.4571238111840869,
                    "weights": [
                        3.1933074394295304,
                        0.2306553854065453,
                        -0.46121498669465405,
                        0.22895352953721976,
                        1.2236546554755876,
                        -10.02228581196927
                    ]
                },
                {
                    "bias": -0.5477856849412586,
                    "weights": [
                        4.956676198659281,
                        0.10357154682227412,
                        -0.21089479109586787,
                        0.3534109617032605,
                        0.10272002705749089,
                        -1.3372601754257751
                    ]
                },
                {
                    "bias": -0.3787390827700718,
                    "weights": [
                        -1.4854699822935766,
                        -0.10182535221430991,
                        -0.21555527758523482,
                        0.9289619425506148,
                        0.16019170362393378,
                        -7.7170794815954435
                    ]
                },
                {
                    "bias": -0.8634612063863037,
                    "weights": [
                        -0.08404877446655004,
                        -0.07394212722128587,
                        0.7352883990465615,
                        0.44731163934683843,
                        1.0044032036000237,
                        -5.81107058169018
                    ]
                },
                {
                    "bias": 0.5831571362463216,
                    "weights": [
                        -1.982997497865006,
                        -0.5712459459073913,
                        -0.5343131397262126,
                        -0.6258943909270345,
                        0.6243089462979924,
                        -10.417834791145607
                    ]
                },
                {
                    "bias": 0.6201770570584374,
                    "weights": [
                        0.23157560199933552,
                        0.08918130429773674,
                        -0.8716414809157811,
                        -0.5048647931831525,
                        -1.2336370483073793,
                        10.423264561205508
                    ]
                },
                {
                    "bias": -0.5409045983173408,
                    "weights": [
                        2.0990464039916485,
                        0.1465325159463567,
                        -0.9117216150154122,
                        -0.3532457062595427,
                        0.061376076665607036,
                        -6.437636908624963
                    ]
                },
                {
                    "bias": -0.39267732445686276,
                    "weights": [
                        4.754750416306079,
                        0.48959403363881254,
                        0.1265724203373489,
                        0.4169845094803219,
                        0.8352826306902174,
                        -5.494805476228501
                    ]
                },
                {
                    "bias": 0.6289633016781269,
                    "weights": [
                        0.6580234027861745,
                        0.46363926698120556,
                        -0.2572809004573378,
                        0.09335482640788954,
                        0.500534496875106,
                        4.588778383798533
                    ]
                },
                {
                    "bias": -0.4551798749406835,
                    "weights": [
                        -4.570344604540686,
                        -0.8510072968213068,
                        0.19097283535682535,
                        -1.1429233379167016,
                        -1.018603236257629,
                        2.1373176177621884
                    ]
                },
                {
                    "bias": -0.7052594658562777,
                    "weights": [
                        4.200325340567413,
                        -0.704442329762115,
                        -0.8288758715243363,
                        0.9821346112916316,
                        1.337299217020992,
                        0.2125486099833018
                    ]
                },
                {
                    "bias": 0.4235782311467717,
                    "weights": [
                        -4.454705335485109,
                        0.021914622288356066,
                        -0.2708413075290559,
                        -0.996412952725504,
                        -1.8382213473597349,
                        4.335245926535069
                    ]
                },
                {
                    "bias": 0.9238111273616696,
                    "weights": [
                        5.720641316556722,
                        -0.3107365454731664,
                        -0.9476706633562947,
                        0.11696104545418436,
                        0.3531439841831606,
                        5.405187076945732
                    ]
                },
                {
                    "bias": 0.6577052224021389,
                    "weights": [
                        -7.687072436075557,
                        0.9699019254685043,
                        0.515277678142624,
                        0.24152688577367307,
                        -2.2913203534294393,
                        -2.1769378593797977
                    ]
                },
                {
                    "bias": -0.3154266627222812,
                    "weights": [
                        -1.771480416690983,
                        -0.8753079393810281,
                        -0.7924055909239206,
                        -0.22963411628071326,
                        -0.7367756430599532,
                        -9.721529268623007
                    ]
                },
                {
                    "bias": 0.4479699576941487,
                    "weights": [
                        2.9706848970235353,
                        -0.4233579075674374,
                        -0.009640628442656328,
                        0.296827702516481,
                        0.8831417846173969,
                        3.1444220933234073
                    ]
                },
                {
                    "bias": 0.826488151210454,
                    "weights": [
                        -1.430455110989642,
                        0.5730514456926428,
                        -0.16420967751881135,
                        0.0035364287592449953,
                        -1.687574472129505,
                        14.350856292447427
                    ]
                },
                {
                    "bias": -0.9962241633102509,
                    "weights": [
                        -3.5007087015686995,
                        0.6751082897145826,
                        0.7216704209427744,
                        -0.7146524909360382,
                        0.10453343941567123,
                        -2.9884440621068533
                    ]
                },
                {
                    "bias": -0.7769812847730807,
                    "weights": [
                        -4.073570273007256,
                        -0.9922610376935749,
                        0.6400659810136945,
                        0.05467395379821515,
                        -2.1579768093178053,
                        1.872615723067092
                    ]
                },
                {
                    "bias": 0.5719854597507998,
                    "weights": [
                        -4.344327234481711,
                        -0.7895013194607441,
                        -0.09943094019823515,
                        -0.8449336838866883,
                        -1.0639512663129178,
                        -1.546103372790577
                    ]
                },
                {
                    "bias": 0.5729674765313396,
                    "weights": [
                        -3.129997203399497,
                        0.6225864680466229,
                        -0.008896710295641852,
                        -0.5754362628343712,
                        -0.8959023984794311,
                        9.005737017950981
                    ]
                },
                {
                    "bias": -0.6486539536066176,
                    "weights": [
                        -2.368138983649179,
                        -0.21481941256739884,
                        0.3819851987102258,
                        0.7580563213885376,
                        -0.7019514402731704,
                        -9.62745863111126
                    ]
                },
                {
                    "bias": 0.3056384173127258,
                    "weights": [
                        -10.36054885463313,
                        -0.6455076696409121,
                        -0.6536422100151925,
                        -1.504779338331747,
                        -2.2364914278048413,
                        -15.229300434324967
                    ]
                },
                {
                    "bias": 0.49155890901836574,
                    "weights": [
                        4.917400676030472,
                        0.9362432125828987,
                        0.5746296581576896,
                        0.38856851117369035,
                        0.6204143290074021,
                        -4.218158286869556
                    ]
                },
                {
                    "bias": 0.9011358886724219,
                    "weights": [
                        1.534878530048936,
                        -0.6256335874927319,
                        0.08458382695470458,
                        0.4182905321488049,
                        -0.3960642414855924,
                        -5.215698014087594
                    ]
                },
                {
                    "bias": -0.32918666647085104,
                    "weights": [
                        2.2134407117403803,
                        1.0064557728933479,
                        0.506346110741675,
                        -0.14114380391849254,
                        1.0461055183656285,
                        -13.381935899686582
                    ]
                },
                {
                    "bias": 0.3940799207852583,
                    "weights": [
                        6.675699428030839,
                        0.9934020423753938,
                        0.08189889787717551,
                        0.7209824710859558,
                        1.1396673810496574,
                        -1.8155856791174179
                    ]
                },
                {
                    "bias": -0.5420123221264814,
                    "weights": [
                        1.143829096620882,
                        0.4603760137877307,
                        -0.26917630559454314,
                        0.37527579400303346,
                        0.9046719545179065,
                        -5.903471720011836
                    ]
                },
                {
                    "bias": 0.7650471544874115,
                    "weights": [
                        1.465267423546864,
                        -0.27330546555925633,
                        0.9696452856376521,
                        -0.5285710493084089,
                        0.5504020975200635,
                        -3.1079378059357827
                    ]
                },
                {
                    "bias": 0.10316236114593205,
                    "weights": [
                        -6.331832168025974,
                        0.09342292469800402,
                        0.6520751049170433,
                        -0.9826491988488696,
                        -1.1810893113963024,
                        -5.083209174629758
                    ]
                },
                {
                    "bias": -0.5228262267736377,
                    "weights": [
                        1.5480788133311332,
                        0.9790569244902072,
                        0.7754356664083232,
                        0.10989716492282664,
                        0.4851667491455576,
                        9.290729260540626
                    ]
                },
                {
                    "bias": -0.6329064132838609,
                    "weights": [
                        -2.5300219526165537,
                        -0.7528073153397189,
                        0.8637817249042655,
                        -0.03910036698170786,
                        0.5378170617232545,
                        -4.25717086455603
                    ]
                },
                {
                    "bias": -0.041831985565241266,
                    "weights": [
                        -1.9362916431515487,
                        -0.18910302690280925,
                        -0.19695152533230853,
                        -0.5713950474655249,
                        -0.5973223474128944,
                        9.906563378926462
                    ]
                },
                {
                    "bias": -0.9470968695790765,
                    "weights": [
                        4.466780796204418,
                        0.849808341323872,
                        -0.25017020495355774,
                        0.9284054978839098,
                        1.3694704032088327,
                        -6.816171340824947
                    ]
                },
                {
                    "bias": -0.03045047344503519,
                    "weights": [
                        -3.5558369751630794,
                        0.5122863156549713,
                        0.14392715706559736,
                        0.7568570865473445,
                        -0.43168023704494,
                        5.452581493894286
                    ]
                },
                {
                    "bias": -0.21024528674169776,
                    "weights": [
                        -2.403081584720839,
                        0.8002599634364029,
                        0.4422481891351677,
                        0.5810439295803504,
                        -0.9931219477673533,
                        -13.270997258667874
                    ]
                },
                {
                    "bias": 0.3216198537504982,
                    "weights": [
                        -4.348523424254782,
                        0.8525519612356329,
                        0.15079804776712238,
                        -0.4613687631638681,
                        -1.4794925136113242,
                        -1.7095982153123925
                    ]
                },
                {
                    "bias": -0.3924204243550088,
                    "weights": [
                        -11.243748512032441,
                        -0.23877370128827083,
                        -0.7639771420479273,
                        -0.6133201718264152,
                        -2.4406788670345176,
                        -7.454673057450964
                    ]
                },
                {
                    "bias": 0.4703886979687674,
                    "weights": [
                        7.2913605045121175,
                        0.39752192478185683,
                        -0.3090048054999764,
                        0.917102012510015,
                        1.0770503329848018,
                        8.641193742132652
                    ]
                },
                {
                    "bias": 0.6724770677886331,
                    "weights": [
                        1.6159259685134983,
                        -0.19035618676652172,
                        -0.5642004618300173,
                        1.0153260622861005,
                        0.07161777043905836,
                        1.5310022542477741
                    ]
                },
                {
                    "bias": 0.17529594268067608,
                    "weights": [
                        -4.558437490506046,
                        0.12904793882403848,
                        -0.5535140888610374,
                        -0.8087499024367674,
                        -1.205916449976183,
                        5.402813895059758
                    ]
                },
                {
                    "bias": -0.08371848866813686,
                    "weights": [
                        3.9469512434002416,
                        0.6628525381501752,
                        -0.502046632909027,
                        -0.8401837179296577,
                        -0.1251463973699655,
                        4.625371423618639
                    ]
                },
                {
                    "bias": -0.7969380149904008,
                    "weights": [
                        -1.3186491083381757,
                        0.7547599439514994,
                        0.5318831156586487,
                        -0.45075477039573003,
                        0.14038562410295904,
                        -7.132471041150282
                    ]
                },
                {
                    "bias": -0.6058298378271494,
                    "weights": [
                        7.740100205918364,
                        -0.9259431255906702,
                        0.7011539127130151,
                        -0.08058799981846072,
                        1.5947826522035877,
                        6.005808152426127
                    ]
                },
                {
                    "bias": -0.5462144066325108,
                    "weights": [
                        -0.529977563093269,
                        0.9617193190571677,
                        -0.9347293536438918,
                        -0.9977217354766427,
                        0.16760203202615326,
                        -7.367027549198514
                    ]
                },
                {
                    "bias": 0.895353540975619,
                    "weights": [
                        -10.012001166689275,
                        -0.8490987524551021,
                        0.603390974554474,
                        0.4362238610952538,
                        -0.8940960003960169,
                        -9.001522181527779
                    ]
                },
                {
                    "bias": 0.9973452757628232,
                    "weights": [
                        -0.21602632760936577,
                        -0.11116607925376618,
                        -0.18603055064099286,
                        0.3887828967212935,
                        -0.3540915697879473,
                        0.8839083585511435
                    ]
                },
                {
                    "bias": -0.7222419962596184,
                    "weights": [
                        0.6022088836994153,
                        -0.4439736556522437,
                        -0.7773830895925776,
                        0.7783780471458195,
                        0.06448055318611766,
                        -9.338707917815213
                    ]
                },
                {
                    "bias": -0.05885103576076541,
                    "weights": [
                        0.03459533042689123,
                        0.9753226160332267,
                        -0.3243187821850375,
                        -0.1875416099890273,
                        0.8628888529663321,
                        -3.2734177571834464
                    ]
                },
                {
                    "bias": 0.07487154919963265,
                    "weights": [
                        -3.1724636667558386,
                        0.261182646069141,
                        0.4018443867111591,
                        0.000783745747717442,
                        -0.0013837621933964165,
                        -7.828150627495104
                    ]
                },
                {
                    "bias": -0.044315156412548684,
                    "weights": [
                        -2.4754684584055213,
                        0.14064983094374106,
                        -0.0359840947421741,
                        0.46621463840964417,
                        -1.8606651349991874,
                        6.17604276684462
                    ]
                },
                {
                    "bias": -0.7323605240694756,
                    "weights": [
                        0.335592115984138,
                        -0.8460651221370145,
                        -0.040446633318296905,
                        -0.5302898124332099,
                        0.10532938774716273,
                        -5.962235260897496
                    ]
                },
                {
                    "bias": 0.5671563452721676,
                    "weights": [
                        -0.20172791936520104,
                        0.016803122521634118,
                        -0.452648269349993,
                        -0.32423958880563797,
                        -0.4642402317801749,
                        6.057193591602966
                    ]
                },
                {
                    "bias": 0.184143397812771,
                    "weights": [
                        -0.12479348045037536,
                        0.9558734167225694,
                        -0.5109562729018011,
                        0.9776558879371546,
                        -0.29062703367588383,
                        8.770192349649939
                    ]
                },
                {
                    "bias": 0.5537231379009175,
                    "weights": [
                        0.706756117439128,
                        -0.04368453488825561,
                        -0.7298275143244805,
                        1.0319457600686899,
                        -0.44276418362470815,
                        -2.3508896742309817
                    ]
                },
                {
                    "bias": 0.29607339772962077,
                    "weights": [
                        -15.909458885402941,
                        -0.0028412471087823896,
                        -0.5367401552453434,
                        -0.9124319837571264,
                        -2.60758407416065,
                        -14.870824287590757
                    ]
                },
                {
                    "bias": 0.837989218083988,
                    "weights": [
                        -2.8878719690281147,
                        -0.4067718340151363,
                        0.5753228562364777,
                        -0.041433383132316745,
                        -0.027547631160799144,
                        -5.042578726417534
                    ]
                },
                {
                    "bias": 0.5569941791570036,
                    "weights": [
                        0.2165883160421529,
                        0.39040229198260856,
                        0.4127026696275676,
                        0.6212490094343053,
                        0.7171447589958937,
                        -1.2397837072532094
                    ]
                },
                {
                    "bias": 0.24643151423229231,
                    "weights": [
                        3.012614791253278,
                        0.8363438622371863,
                        -0.2471808763182573,
                        0.41452365847029604,
                        0.5670184656558855,
                        -1.721757596870544
                    ]
                },
                {
                    "bias": 0.8772352470937332,
                    "weights": [
                        3.9271655833060897,
                        -0.7341552125090077,
                        -0.16925680156540354,
                        0.2407419602434494,
                        1.5108907769815088,
                        -2.666865630511392
                    ]
                },
                {
                    "bias": 0.49547401816916303,
                    "weights": [
                        1.754105750509102,
                        -0.2188552460875935,
                        0.20981689615357071,
                        -0.531108129222687,
                        1.1558332541612995,
                        -3.6425860836569837
                    ]
                },
                {
                    "bias": 0.21073266622846676,
                    "weights": [
                        5.995803708950866,
                        -0.043811743280435,
                        0.37523992913227816,
                        0.9196482752218932,
                        0.9030056438059825,
                        -3.6449138255957925
                    ]
                },
                {
                    "bias": 0.5232234892854217,
                    "weights": [
                        0.9157662203045828,
                        -0.350155830980173,
                        -0.23298437555846996,
                        -0.7327579081119665,
                        -0.6623128200442574,
                        4.399317905729748
                    ]
                },
                {
                    "bias": 0.14539398640120743,
                    "weights": [
                        6.213015666388489,
                        -0.4687487388463853,
                        -0.20508627830868023,
                        -0.5802519423685877,
                        1.1791739102122187,
                        1.815201933882065
                    ]
                },
                {
                    "bias": -0.13878537610219205,
                    "weights": [
                        5.687919037004252,
                        -0.0860930009963285,
                        0.055149483747437104,
                        -0.17203005373347474,
                        2.226379661236,
                        -0.7782448360590191
                    ]
                },
                {
                    "bias": 0.644383185340146,
                    "weights": [
                        -5.677767627009248,
                        -0.018578580361116172,
                        -0.646117184368895,
                        -1.2968828122877993,
                        0.14037140739952608,
                        -11.678650056591646
                    ]
                },
                {
                    "bias": -0.883334045593247,
                    "weights": [
                        -1.5217055261741927,
                        -0.5480366038296652,
                        -0.12033112258744287,
                        0.8431231930287058,
                        0.32127082824788206,
                        -5.5882321396633925
                    ]
                },
                {
                    "bias": -0.07495449460973394,
                    "weights": [
                        -2.792531477539766,
                        0.13608010233046006,
                        0.6271124230890197,
                        -0.3565651711679393,
                        -0.13384559292707093,
                        -1.3515308155916237
                    ]
                },
                {
                    "bias": -0.06443978656322226,
                    "weights": [
                        -0.4725536979639904,
                        0.9819002664644996,
                        -0.9289294262264164,
                        -0.5808878196580315,
                        -0.11666091413164718,
                        -0.9752973962197927
                    ]
                },
                {
                    "bias": 0.5389744461906539,
                    "weights": [
                        -5.553333777458781,
                        0.2895045351984202,
                        0.7796488054620243,
                        0.262007067837292,
                        -1.7535562358342376,
                        -4.768816698795435
                    ]
                },
                {
                    "bias": -0.6821681780383305,
                    "weights": [
                        4.5019380763820935,
                        0.8764947161984278,
                        0.2170325153840182,
                        -0.30505815028361666,
                        0.3325296130089064,
                        2.9972746933771828
                    ]
                },
                {
                    "bias": 0.7824528126878536,
                    "weights": [
                        -0.9838702833086663,
                        0.7125424257292039,
                        -0.5620986818491434,
                        -0.11899365443222351,
                        -0.27075098593861824,
                        -6.1355828423649355
                    ]
                },
                {
                    "bias": 0.3366726419603561,
                    "weights": [
                        0.15578385323144955,
                        -0.4940111732694363,
                        -0.26495478260202165,
                        -0.06485107510465138,
                        0.16924276558771364,
                        -9.964523599701698
                    ]
                },
                {
                    "bias": 0.37501879008015815,
                    "weights": [
                        2.6282976991055538,
                        0.8788193146961798,
                        -0.7181380432780499,
                        0.9723766809340432,
                        0.4073557241780043,
                        5.731755472758764
                    ]
                },
                {
                    "bias": -0.8770255314522734,
                    "weights": [
                        -7.695518822361665,
                        -0.7772884381529741,
                        -0.09647849114337853,
                        0.2786922899084089,
                        -1.9600716408584,
                        -17.449962780188276
                    ]
                },
                {
                    "bias": -0.2323119202405639,
                    "weights": [
                        -2.5286931071919003,
                        -0.8189472217623529,
                        -0.5444898605101609,
                        0.6914577365609398,
                        0.7615930097309033,
                        -6.462851185951484
                    ]
                },
                {
                    "bias": -0.8086987130684075,
                    "weights": [
                        -0.0661477765428252,
                        -0.024968686697928476,
                        -0.4300103180739697,
                        0.2688296689959448,
                        0.7007476779959302,
                        -4.3666021916915
                    ]
                },
                {
                    "bias": 0.10840509786732064,
                    "weights": [
                        10.020618204264068,
                        -0.908991318358517,
                        0.5717798668720254,
                        0.6992971030836348,
                        2.7003897848236638,
                        7.355429103995155
                    ]
                },
                {
                    "bias": -0.6854471910913887,
                    "weights": [
                        -1.8123572694534054,
                        0.8880616298106025,
                        -0.5477929126010257,
                        -0.5043106520572214,
                        -1.6276390554029907,
                        3.7769334516081536
                    ]
                },
                {
                    "bias": -0.5712975923938537,
                    "weights": [
                        -6.380344852299084,
                        0.47108315264911554,
                        -0.5691114551310641,
                        -0.6604077521548223,
                        -0.5022388797572463,
                        -4.51928401316319
                    ]
                },
                {
                    "bias": 0.5989068183152026,
                    "weights": [
                        -4.204163781060395,
                        0.7800602383248001,
                        0.19643923636078028,
                        -0.9274619339054476,
                        -1.0564686590850745,
                        -6.244051873644087
                    ]
                },
                {
                    "bias": 0.3946679349970929,
                    "weights": [
                        -8.570860057739838,
                        0.016285195974623978,
                        0.7776779867060212,
                        -1.2749028476012356,
                        -1.4409031794526357,
                        -8.053820700731716
                    ]
                },
                {
                    "bias": -0.23791902068634813,
                    "weights": [
                        3.1711106340857027,
                        0.19300429853814124,
                        -0.4681729075792828,
                        -0.6818237526105384,
                        1.2109439024214497,
                        -5.630219959713693
                    ]
                },
                {
                    "bias": -0.9186803950668668,
                    "weights": [
                        0.654936486285867,
                        -0.6337013531326179,
                        0.0901351386896792,
                        0.4748023461075194,
                        1.246893868329626,
                        -3.9718238587193446
                    ]
                },
                {
                    "bias": 0.42426236357270963,
                    "weights": [
                        4.994504878565444,
                        -0.554757350356259,
                        -0.4712577847476919,
                        0.29394140263663165,
                        -0.08350696789098863,
                        5.6387599076270405
                    ]
                },
                {
                    "bias": 0.3547835219985483,
                    "weights": [
                        1.6668039071492096,
                        0.49866069361279236,
                        0.028005863668576998,
                        0.2931614382346099,
                        -0.21311354921941894,
                        2.601117806559256
                    ]
                },
                {
                    "bias": -0.1731739152262224,
                    "weights": [
                        -0.9884946554398122,
                        -0.8227590799865337,
                        -0.23396817329884279,
                        -0.4313957881879182,
                        0.4649307188425605,
                        -10.368756504901395
                    ]
                },
                {
                    "bias": 0.0851014484615174,
                    "weights": [
                        7.648549517704375,
                        -0.7376629625607388,
                        0.6289616998142105,
                        1.020932450645729,
                        1.0989607420763639,
                        6.699662502906765
                    ]
                },
                {
                    "bias": 0.052675288640186724,
                    "weights": [
                        -7.776622979317314,
                        -0.8173172269864869,
                        0.13495519998845346,
                        0.6023436967294238,
                        -1.9298202041802837,
                        -2.691766735648217
                    ]
                },
                {
                    "bias": 0.06302922939513093,
                    "weights": [
                        -4.168001362335092,
                        0.39815847248876285,
                        -0.5321052512673661,
                        0.6422508789401689,
                        -0.7543550927033167,
                        -6.322045584556047
                    ]
                },
                {
                    "bias": 0.7584065805119724,
                    "weights": [
                        2.26178634140757,
                        -0.6572562855846341,
                        -0.5622546335281113,
                        0.19029425300392624,
                        0.19537308005699017,
                        -2.4551601313496496
                    ]
                },
                {
                    "bias": 0.8762198004961482,
                    "weights": [
                        8.607800024119323,
                        -0.5243067600573642,
                        -0.36385038955873283,
                        -0.34583278468905,
                        1.6239302986053665,
                        0.003564822367503915
                    ]
                },
                {
                    "bias": 0.6676310351793574,
                    "weights": [
                        -1.2609727056463071,
                        -0.11894272231306646,
                        -0.051097052571831676,
                        0.6267311621325123,
                        -0.17699777077840403,
                        -2.6423808971186684
                    ]
                },
                {
                    "bias": -0.5237844176221814,
                    "weights": [
                        -7.046411712747536,
                        0.7673736281890308,
                        -0.30437401834435845,
                        -0.7685878359559868,
                        -1.4593778153171706,
                        -3.6497471647070423
                    ]
                },
                {
                    "bias": -0.3780438795905863,
                    "weights": [
                        -3.4791893806973553,
                        -0.2886662090953742,
                        0.5647806059562964,
                        0.4129493358071957,
                        0.21628293215405126,
                        -13.003593199570494
                    ]
                },
                {
                    "bias": 0.6166562529179991,
                    "weights": [
                        -0.977171198606793,
                        0.13568253666428892,
                        -0.6179445739521608,
                        0.27451316980779983,
                        -0.03231692421150355,
                        2.6919672135053645
                    ]
                },
                {
                    "bias": 0.22655798078786296,
                    "weights": [
                        -1.0510928852169976,
                        0.19517834460569522,
                        0.4875275953864246,
                        0.4931884099048332,
                        -1.0238732037946907,
                        -1.1392081280436308
                    ]
                },
                {
                    "bias": 0.5524952064532496,
                    "weights": [
                        1.5067400509257711,
                        -0.4475303293154743,
                        -0.11297918456429008,
                        0.0007587959792989251,
                        -0.7955201374303061,
                        8.912827799954867
                    ]
                },
                {
                    "bias": 0.23233310271127502,
                    "weights": [
                        3.3348642305854606,
                        -0.16552864853938964,
                        -0.9654572031951701,
                        0.8329996404919472,
                        1.127593418720294,
                        3.288282748837772
                    ]
                },
                {
                    "bias": 0.45555176236522893,
                    "weights": [
                        -4.819273166322434,
                        0.5163697989416752,
                        0.8322488391062226,
                        -1.1184677258582774,
                        -1.708340913190134,
                        5.700706295888113
                    ]
                },
                {
                    "bias": -0.9339392484586356,
                    "weights": [
                        1.3232034659392649,
                        0.25939850150379756,
                        0.06563275616797058,
                        -0.36909291849945053,
                        -0.3136464639823745,
                        2.9491361104006195
                    ]
                },
                {
                    "bias": -0.3635421900551802,
                    "weights": [
                        -4.80522010754358,
                        -0.017668879496254567,
                        0.28015279162504547,
                        0.4619664011172698,
                        -0.233047700927245,
                        -8.385488158157212
                    ]
                },
                {
                    "bias": 0.1383067314719392,
                    "weights": [
                        -3.408985660485708,
                        0.8111086791374031,
                        -0.802919715483688,
                        0.23936813041326024,
                        -0.553153670423892,
                        -16.530988287872802
                    ]
                },
                {
                    "bias": -0.19595438179760347,
                    "weights": [
                        1.5112484221953097,
                        0.7897770068216754,
                        -0.6175151166990672,
                        -0.15940156060268282,
                        0.551388255548836,
                        5.788932606933816
                    ]
                },
                {
                    "bias": -0.14091550800247218,
                    "weights": [
                        6.444540847041022,
                        -0.4616201080001061,
                        -0.7268230429691296,
                        -0.30719385976955704,
                        2.295951152959114,
                        5.816055691145078
                    ]
                },
                {
                    "bias": -0.5330575832975614,
                    "weights": [
                        -8.759422663683486,
                        0.8316831923090838,
                        -0.11343057096404915,
                        -0.6681953308530576,
                        -1.861897444935995,
                        -6.698106361054471
                    ]
                },
                {
                    "bias": 0.7946134256970555,
                    "weights": [
                        2.8870100454702943,
                        -0.5815490988184526,
                        0.14589473808056264,
                        -0.5289136625936249,
                        0.37279695588250156,
                        -6.803458780833196
                    ]
                },
                {
                    "bias": 0.7039222136676346,
                    "weights": [
                        1.0133323745765777,
                        0.5264382476994273,
                        -0.03688099188335408,
                        0.05768395464316358,
                        0.6822409119463342,
                        -0.4006838081471229
                    ]
                },
                {
                    "bias": -0.008243940351281745,
                    "weights": [
                        -4.808017516757663,
                        0.5540000534685255,
                        -0.5332592472601742,
                        -0.5467804328025364,
                        -2.4173475719071145,
                        6.630512260905912
                    ]
                },
                {
                    "bias": -0.16587839420455738,
                    "weights": [
                        -3.524079845161224,
                        -0.9579490106561355,
                        0.8221252538990966,
                        -1.1599670954338284,
                        -0.051401443846674444,
                        -3.768416252099262
                    ]
                },
                {
                    "bias": 0.5185877989696946,
                    "weights": [
                        3.050212877699787,
                        -0.023621516408974235,
                        0.32666610506947336,
                        0.3424377484465178,
                        1.1245987556260462,
                        -1.2622881830742996
                    ]
                },
                {
                    "bias": 0.38608920667696184,
                    "weights": [
                        4.536891093446434,
                        0.7403341082018318,
                        0.3242223659321699,
                        -0.40919164569964683,
                        0.7566541359684136,
                        7.250319653477521
                    ]
                },
                {
                    "bias": 0.8756050112866679,
                    "weights": [
                        0.09771159068324425,
                        0.6116603598998834,
                        0.07933525037708501,
                        0.2263245800217855,
                        0.14430676898488343,
                        3.527048448705902
                    ]
                },
                {
                    "bias": 0.23809573657009525,
                    "weights": [
                        0.14387526142232498,
                        -0.6572834828502536,
                        -0.13145154271157455,
                        0.15989690716308647,
                        -0.28258415888814475,
                        -5.516564725187376
                    ]
                },
                {
                    "bias": -0.7080876290931495,
                    "weights": [
                        -7.652502767693811,
                        0.42079646702316265,
                        -0.948467539089097,
                        -0.2678846781334606,
                        -2.198209945685136,
                        -2.926574497076268
                    ]
                },
                {
                    "bias": 0.6989638496454774,
                    "weights": [
                        -9.08580390793625,
                        0.7817349337539963,
                        0.7797632542075743,
                        -0.18862469617829125,
                        -1.492535284285728,
                        -7.232671411908591
                    ]
                },
                {
                    "bias": -0.42919212503837934,
                    "weights": [
                        -3.30539526374568,
                        0.3842246723698241,
                        0.05575487572714615,
                        0.21297054649121822,
                        -1.160645791597916,
                        6.178485105865855
                    ]
                },
                {
                    "bias": -0.3263309008145865,
                    "weights": [
                        -1.1942819668919975,
                        0.7666482798650655,
                        -0.5448355630644747,
                        0.4926853661563896,
                        -0.40630332430025234,
                        -10.163560766530521
                    ]
                },
                {
                    "bias": 0.8938287880271457,
                    "weights": [
                        4.165478941592649,
                        1.0228562830872863,
                        0.9603726848583,
                        0.011288140540562529,
                        1.88237758961631,
                        -7.226523199392072
                    ]
                },
                {
                    "bias": -0.07360189349221248,
                    "weights": [
                        -9.053092491529615,
                        0.37266566471153545,
                        -0.826136341781641,
                        0.11361364485265234,
                        -1.405357625959464,
                        -15.014175403104796
                    ]
                },
                {
                    "bias": -0.0549217320240528,
                    "weights": [
                        -3.642617668721402,
                        0.12042067749089289,
                        -0.37892230644446706,
                        0.4022695094133747,
                        -1.5806237359969626,
                        5.0655892993399965
                    ]
                },
                {
                    "bias": 0.3357796202082593,
                    "weights": [
                        7.388567221931983,
                        0.9212494345047695,
                        0.5241598783870798,
                        1.1538321324190397,
                        1.9015121493089813,
                        8.453323826920462
                    ]
                },
                {
                    "bias": 0.013777298827008332,
                    "weights": [
                        -7.308951374431481,
                        0.20611534012261246,
                        -1.017099945377672,
                        -1.1725481270145919,
                        -1.418197048056781,
                        -3.6535006566706283
                    ]
                },
                {
                    "bias": -0.8519326924136431,
                    "weights": [
                        0.5662117596310676,
                        0.9534368766098885,
                        -0.07474911836304511,
                        -0.41934136436549246,
                        0.6638540317907838,
                        -0.7922811144438308
                    ]
                },
                {
                    "bias": -0.0958468337120239,
                    "weights": [
                        -1.0148460856998105,
                        0.13437984946005127,
                        0.10490014837682027,
                        0.2695657313155285,
                        -0.3797875901483575,
                        -10.222176242050839
                    ]
                },
                {
                    "bias": -0.798680129038778,
                    "weights": [
                        0.762906859708742,
                        0.48380689004775856,
                        0.8742902972156252,
                        -0.5560531880382428,
                        1.015673655223837,
                        -6.741197480143462
                    ]
                },
                {
                    "bias": -0.016729559968573705,
                    "weights": [
                        8.145183449815043,
                        0.33548581165086644,
                        0.5660680151863157,
                        0.18531096152721968,
                        1.2756227707650583,
                        6.5434904378583285
                    ]
                },
                {
                    "bias": -0.03962364739951124,
                    "weights": [
                        -5.724712107521691,
                        0.46836888364751245,
                        0.9803696945807957,
                        -0.8996389428884217,
                        -0.6889610683330456,
                        -9.022402740913789
                    ]
                }
            ]
        },
        {
            "activation": "sigmoid",
            "nodes": [
                {
                    "bias": 0.19485400457563787,
                    "weights": [
                        -0.21970548910075127,
                        -0.9901132076719854,
                        -0.02647636060897507,
                        0.32573723406023813,
                        0.14198611232867003,
                        -0.7204631988015687,
                        -0.39404613193580085,
                        0.39034541056900707,
                        0.9439012752584652,
                        0.6351864291811266,
                        -0.7746919652474807,
                        0.3448925852856848,
                        0.4431502079971524,
                        -0.35572167362818574,
                        -0.2877102618826449,
                        -0.25897618658519117,
                        -0.23208136942863686,
                        0.6831324258107931,
                        -0.8816398726225085,
                        -0.5239345757879809,
                        -0.5187770335333082,
                        -0.3057583757857737,
                        0.9370655920063451,
                        0.4591516129695964,
                        -0.583792495948917,
                        0.4147427732801846,
                        0.5096343939220895,
                        -0.25446155938337245,
                        -12.435422745208795,
                        -0.6205338484454632,
                        0.8060151249306844,
                        0.6342067662590194,
                        -0.4933622277457356,
                        -0.13162867104329815,
                        -0.01579110114769941,
                        0.5774882616698453,
                        0.021012916395485907,
                        0.71078925717047,
                        -0.11450590963336275,
                        0.03184726177501299,
                        0.2657727344267875,
                        0.2145976396347206,
                        -0.46649794188571064,
                        -0.40419414819829036,
                        0.9365962148356475,
                        0.2977740045396778,
                        0.5174854064188812,
                        -0.29842414998003297,
                        0.09073264878513486,
                        0.6476095718273266,
                        0.029001377713250204,
                        0.7891360962826196,
                        -0.6940536261752998,
                        0.10232688910436205,
                        0.10342307876891596,
                        -0.3349365928615131,
                        -0.5011681293243188,
                        -0.23924312215540885,
                        0.5250055468192698,
                        0.3012866553116974,
                        0.02670966856269948,
                        0.4483552721554205,
                        -0.03263637893712583,
                        0.5624746398540437,
                        -0.5659378954793258,
                        -1.0072984777096743,
                        5.625724404640238,
                        0.5605084504425216,
                        0.5910243247494564,
                        -0.7136748634923527,
                        -0.34045367818437056,
                        -0.16284209251357637,
                        0.5683372279481671,
                        0.20112197630466774,
                        0.650314327476868,
                        0.4924290270974996,
                        -0.48700545547930335,
                        0.05566176583515852,
                        -0.7017187055644171,
                        0.5996181957967586,
                        -0.25454033696921896,
                        -5.154191870418013,
                        0.27178833812518954,
                        0.10092320665198273,
                        -0.49091331702164565,
                        -0.5653006618029647,
                        0.9011142476932679,
                        -0.02109893750403058,
                        0.06362757386264956,
                        0.4590053060270938,
                        -1.6582264536702296,
                        -0.7239555539564543,
                        -0.12332631653169873,
                        0.4823999694884919,
                        0.9463349180046166,
                        0.42246812033029807,
                        0.5150961395322028,
                        0.19633739963003305,
                        -0.057272247974850594,
                        0.16877102375764896,
                        0.5487153729616561,
                        0.6035346528208626,
                        -0.9917293514927035,
                        0.04758852868687566,
                        -0.2891453973272097,
                        0.7447865820269798,
                        -0.5245301130349249,
                        0.3198307246026392,
                        -0.06501391709753308,
                        -0.19104086749776497,
                        -0.09451906036358892,
                        0.7362119288030395,
                        -0.8363373899537723,
                        -0.9174134549678157,
                        -0.04421807105147592,
                        -0.236952420104977,
                        -0.40041062469836103,
                        -0.1409052065578519,
                        0.7917675591502331,
                        0.7225347546146971,
                        -0.5445740561320863,
                        -0.7129921183839288,
                        -1.047180577782973,
                        0.32517782904376996,
                        0.630206669133841,
                        -1.062557384690281,
                        -0.23904629456215054,
                        0.23818515127934992,
                        0.19124560683096675,
                        0.6053972451406725,
                        -0.5897630792544734,
                        -0.2450989108747495,
                        0.3110938188934695,
                        -0.4095591933428234,
                        0.6796480196263881,
                        -1.025932070169317,
                        -0.7483561210567429,
                        -0.7075963417892212,
                        0.3604162399149692,
                        0.20990690459027284,
                        0.106108742365081,
                        -0.720923527945263,
                        0.0026548562297355064,
                        0.3715611631453375,
                        -0.485214457154619,
                        0.9010368617945756,
                        -0.8493884540392964,
                        0.07510441366002046,
                        -0.17743745940629066,
                        0.95991174530647,
                        -0.31440064663088607,
                        0.15160526761855347,
                        -0.7217225725185248,
                        -0.133174409083979,
                        -0.4660502005005147,
                        -0.9316946890136121,
                        -0.15451798497805982,
                        0.1806716259122815,
                        0.3020600088092894,
                        -0.904565970899911,
                        -0.1700858524572753,
                        0.6674894194239566,
                        -0.12934968343189346,
                        -0.873585912450408,
                        -0.786413815704367,
                        -0.43299576505197723,
                        -0.8246692927581549,
                        -0.6065362406628825,
                        -0.1966389350488736,
                        0.4908120493970911,
                        0.5955621949277059,
                        0.9065806480876613,
                        0.761216150973582,
                        -0.3420542736434283,
                        0.3581881028289923,
                        -0.816904972700925,
                        -0.32915326710111137,
                        0.4873851012759292,
                        0.37331516454300967,
                        0.48207479562656697,
                        0.37778900626242873,
                        -0.9486509097881095,
                        -0.05960998369908412,
                        0.7490286893440687,
                        -0.08734490708853368,
                        0.27541253588880066,
                        0.8123073990516692,
                        0.88639435275319,
                        -0.5322626917772144,
                        0.18355139879822419,
                        -0.9446353294196173,
                        0.40666035907653186,
                        -0.20612118445842006,
                        -0.2512296707707464,
                        0.5200097542211835,
                        0.08903556474686214,
                        0.46504547932166485,
                        0.7884639778319295,
                        0.5722612293654463,
                        -0.7756946929026025
                    ]
                },
                {
                    "bias": -1.0271269830908305,
                    "weights": [
                        0.2594652749874933,
                        -0.7132706937139923,
                        -0.2555381804820674,
                        0.7152466188364865,
                        0.4273148756508126,
                        0.3310982805268923,
                        -0.5057395867655281,
                        -0.07179351320734884,
                        -0.2887315001751909,
                        -1.018848510165385,
                        -0.3617838614329811,
                        -0.48243424506289295,
                        -0.2883491012976207,
                        -0.5293534963994071,
                        0.48821506767688566,
                        -0.9773809656589958,
                        -0.9969894125019514,
                        0.5111190434485282,
                        -0.3456141796641118,
                        0.551686416881339,
                        0.4072493060331253,
                        -0.91129349488194,
                        -0.5828657930637084,
                        -0.536328768906231,
                        0.39629783574336747,
                        0.5196194243530428,
                        0.6934678116873945,
                        0.08529119097382715,
                        12.823983673893325,
                        -0.7918611785208978,
                        -0.6284821974455701,
                        -0.8209125060035337,
                        -0.5778147923881669,
                        0.5092082084484948,
                        -0.8809147363271249,
                        -1.0138318888662843,
                        -0.13784079016289516,
                        -0.15952193249567712,
                        0.10931854086771162,
                        0.4695932874392749,
                        0.06692358435454016,
                        -1.1085688426376379,
                        -0.49906095502254216,
                        0.5416064690375644,
                        -0.6896919564527358,
                        -0.512825347823223,
                        -0.9453180793581821,
                        -0.5032963126642016,
                        -0.7881304569938163,
                        -0.294193928343117,
                        -0.8779950463387396,
                        0.6039368210534359,
                        -0.4081619640305381,
                        -0.23420521860672405,
                        -0.8266676843197762,
                        -0.9674065858168517,
                        -0.9344636008645986,
                        -0.6091381600716259,
                        0.34434603562778526,
                        0.09403622553265206,
                        -0.5491234332080147,
                        -0.7205485150779358,
                        0.4988522378388156,
                        0.1959183467269577,
                        0.8129538373652025,
                        -0.9263963539284732,
                        1.2692937492353091,
                        0.09166236899484663,
                        -0.3193958578163047,
                        -0.12876218513682774,
                        -0.13596156404492082,
                        -1.2295596116774608,
                        -0.1224939195078304,
                        0.3726091274854015,
                        -1.1113843557329606,
                        0.3644408496862468,
                        -1.1385274141169912,
                        -1.2982262594350935,
                        -0.97651186567562,
                        -0.7222303073787048,
                        -0.41679477397792936,
                        -1.651509021683446,
                        -0.9668763656062651,
                        0.3935448433459931,
                        0.026157703036789222,
                        -0.3071443021626574,
                        0.8933487794796697,
                        0.31657594307214004,
                        -0.19325665566875797,
                        0.349945217205726,
                        -0.4110845746108326,
                        0.6843470170051651,
                        0.5071262991336978,
                        -0.38376129734263975,
                        0.2582213437455805,
                        0.7338234128825192,
                        -0.31042465165551186,
                        -0.2319302015155229,
                        -0.16740275083204012,
                        0.7322564671917012,
                        0.6568139181175834,
                        0.8541569389942427,
                        0.7944955316869746,
                        -0.49319630705599193,
                        0.21077932666179175,
                        0.7286984849986894,
                        0.7093783833362546,
                        0.3252927596588027,
                        -1.2284551382978444,
                        -0.9371308801233137,
                        0.4923132805520068,
                        -0.3477042046806696,
                        -0.750861393462299,
                        0.5532265195066994,
                        -0.6900383153869285,
                        0.628863214170351,
                        -0.4066594193410051,
                        -0.8067095368030681,
                        0.39687443775603676,
                        0.6421919278005139,
                        0.781369467991919,
                        -0.5030779410346248,
                        0.4899253494808185,
                        0.6161505143107401,
                        0.01963539161663,
                        -0.36653653157250426,
                        0.366786061793868,
                        -0.9039280612218265,
                        0.7159338749579663,
                        -0.8111926952305497,
                        0.7656003190999792,
                        0.2574765001595249,
                        -0.6557967246055075,
                        0.8183821197212177,
                        0.5275845732746478,
                        0.3637475198058859,
                        0.6170184661931977,
                        0.7393291579564298,
                        0.15972131799041958,
                        0.857592835024741,
                        0.5790388028327016,
                        -0.12532047700384652,
                        -0.5871374468467243,
                        -0.7473169846659483,
                        -0.19039684336016743,
                        -0.40329916097459567,
                        -0.6786849143349961,
                        0.3053241281126382,
                        0.10371301651450433,
                        0.5387562951912845,
                        -0.1385040117909145,
                        -0.20746397000394606,
                        -0.6642561821729878,
                        -0.18821055798866923,
                        -0.4886866836349551,
                        0.4015282463157953,
                        0.4665919785392603,
                        0.6505914907997008,
                        0.6916234303048516,
                        0.29321714167616114,
                        -0.6865333603619029,
                        0.40359665003278244,
                        -0.18535571185842484,
                        -0.39897594395724983,
                        0.5615887276649423,
                        -0.2258362964559921,
                        -0.6228664991095145,
                        0.06568989883293819,
                        -0.5314485656960339,
                        0.4229909707224517,
                        -0.06668726617783544,
                        -0.8364690692339602,
                        -0.9154489813173377,
                        0.6505732839052464,
                        -0.24193298964540325,
                        -0.16874535477415567,
                        -0.37942547453645664,
                        -0.0023836960049366373,
                        -0.40751051506890723,
                        0.6615578775965025,
                        -0.4556496435792747,
                        0.511610422808535,
                        -0.25193630718867455,
                        0.12002376798235317,
                        -0.8639857044648676,
                        0.3453908354720989,
                        -0.23325697827292788,
                        -0.73426746496584,
                        0.21587244384423307,
                        -0.4754197164854471,
                        0.6922892093529447,
                        0.7230019670552583,
                        -1.0029091028034895,
                        -0.6206685817803936,
                        -0.6108603679168415,
                        0.5355489085855617,
                        0.4019923138966221,
                        -0.28231533859926483,
                        -0.05325326342777579,
                        -1.2134885511668587
                    ]
                },
                {
                    "bias": -0.5930740916990727,
                    "weights": [
                        -0.5715371684970041,
                        -0.6435454354010871,
                        -0.27573000676208365,
                        -0.6719502504570156,
